//Numpy array shape [64]
//Min -0.272010982037
//Max 0.258121937513
//Number of zeros 0

#ifndef B2_H_
#define B2_H_

#ifndef __SYNTHESIS__
model_default_t b2[64];
#else
model_default_t b2[64] = {-0.0268850625, -0.0576416962, -0.0125467051, -0.1335102171, -0.2272543907, -0.0755306706, -0.1002087221, -0.0085169757, -0.0104372818, 0.1285328865, -0.0063591599, -0.0498674214, 0.0107983034, 0.1185837537, 0.0056466139, 0.0622497797, -0.0577256083, -0.0755617619, 0.1358377039, -0.0262701511, -0.0905837938, 0.0841297507, -0.0762432814, 0.0001744032, 0.0302970409, -0.0480753183, -0.0375295095, -0.0015182495, -0.0030547976, -0.0002206041, -0.0631751716, -0.0462985039, -0.0875514746, 0.0067661703, -0.0067711216, 0.1924785376, -0.0820593834, -0.0445767343, -0.2162343264, -0.0251352787, -0.1616973877, -0.0002547801, -0.3000152111, 0.1967274547, -0.0116959810, -0.0163776875, -0.2074036300, -0.0121766031, -0.0151332617, -0.0105499029, -0.0149893165, 0.0937977657, -0.0864217505, -0.0760572553, -0.1158779860, -0.0296299495, -0.1332360208, 0.0363045037, 0.0627337694, 0.0152550340, -0.0710446835, -0.0974512100, 0.0267066956, 0.0390009731};
#endif

#endif
